<?xml version="1.0"?>
<opencv_storage>
<stage8>
  <maxWeakCount>7</maxWeakCount>
  <stageThreshold>-6.5351414680480957e-01</stageThreshold>
  <weakClassifiers>
    <_>
      <internalNodes>
        0 -1 6016 449717117 1858916822 924058971 606912543 1645912311
        1405161920 529435186 611597566</internalNodes>
      <leafValues>
        -5.7012748718261719e-01 5.3569972515106201e-01</leafValues></_>
    <_>
      <internalNodes>
        0 -1 139492 -268611790 -612417625 2139092595 -102740 -100731480
        121634415 921810934 -1613188466</internalNodes>
      <leafValues>
        -3.9320844411849976e-01 5.0624799728393555e-01</leafValues></_>
    <_>
      <internalNodes>
        0 -1 50306 -503535835 -237903599 1343258845 -803880575
        -1068973081 -254754408 -526351619 -251925717</internalNodes>
      <leafValues>
        -5.7391434907913208e-01 3.7155741453170776e-01</leafValues></_>
    <_>
      <internalNodes>
        0 -1 52008 -1035285761 -15482829 -1872584431 -1287692198
        -968195409 -6094688 -217985573 -544799315</internalNodes>
      <leafValues>
        -4.3410545587539673e-01 5.0330704450607300e-01</leafValues></_>
    <_>
      <internalNodes>
        0 -1 22891 1690608631 2019819914 1073867918 2073146459
        1368064440 1487438346 730106797 -1927562306</internalNodes>
      <leafValues>
        -4.7105219960212708e-01 4.4302886724472046e-01</leafValues></_>
    <_>
      <internalNodes>
        0 -1 140248 -16814398 -1630158849 1392454590 1068859383
        939524070 -143818755 -537022490 -692736002</internalNodes>
      <leafValues>
        -4.2322948575019836e-01 5.4291224479675293e-01</leafValues></_>
    <_>
      <internalNodes>
        0 -1 11641 -1317618978 -1069083553 21175995 1270826456
        1968347442 -662531919 1862613747 70139533</internalNodes>
      <leafValues>
        -6.1593407392501831e-01 3.5257047414779663e-01</leafValues></_></weakClassifiers></stage8>
</opencv_storage>
