<?xml version="1.0"?>
<opencv_storage>
<stage10>
  <maxWeakCount>7</maxWeakCount>
  <stageThreshold>-6.5394592285156250e-01</stageThreshold>
  <weakClassifiers>
    <_>
      <internalNodes>
        0 -1 5968 -262523832 1848562358 1275269204 69200725 -1114992614
        1216364673 488465171 1416526000</internalNodes>
      <leafValues>
        -5.9230768680572510e-01 5.2741932868957520e-01</leafValues></_>
    <_>
      <internalNodes>
        0 -1 125894 2132800307 -1215827137 -184585967 -1620574333 -4145
        -1212744899 1568651705 -1971326533</internalNodes>
      <leafValues>
        -3.2886111736297607e-01 5.4575377702713013e-01</leafValues></_>
    <_>
      <internalNodes>
        0 -1 140241 1742716460 -527388475 703140118 1130766904 8452987
        830825016 389433904 1171991440</internalNodes>
      <leafValues>
        -6.5236383676528931e-01 3.0660670995712280e-01</leafValues></_>
    <_>
      <internalNodes>
        0 -1 134604 -1855480352 809783438 285410642 1578567778
        -1992260906 423790664 50459344 522132460</internalNodes>
      <leafValues>
        -6.1733824014663696e-01 3.1852254271507263e-01</leafValues></_>
    <_>
      <internalNodes>
        0 -1 37119 -209728801 -11419803 1894215309 -205287502 1677170687
        -12405404 -713457731 -548072895</internalNodes>
      <leafValues>
        -3.2860165834426880e-01 6.5684419870376587e-01</leafValues></_>
    <_>
      <internalNodes>
        0 -1 141371 -563732782 -153714347 570544911 -1078718329
        507648939 914587716 -1867337598 -249814504</internalNodes>
      <leafValues>
        -4.9393916130065918e-01 4.2527422308921814e-01</leafValues></_>
    <_>
      <internalNodes>
        0 -1 141375 -262571946 -1057251328 16802931 -203500805
        -628892785 1745158274 -481429421 -2014379809</internalNodes>
      <leafValues>
        -4.5936426520347595e-01 4.6463441848754883e-01</leafValues></_></weakClassifiers></stage10>
</opencv_storage>
