<?xml version="1.0"?>
<opencv_storage>
<stage17>
  <maxWeakCount>9</maxWeakCount>
  <stageThreshold>-6.4331048727035522e-01</stageThreshold>
  <weakClassifiers>
    <_>
      <internalNodes>
        0 -1 271 102640386 201708376 -1804524130 1818132544 546515634
        101730491 -1157453198 322198853</internalNodes>
      <leafValues>
        -7.5428569316864014e-01 4.7698113322257996e-01</leafValues></_>
    <_>
      <internalNodes>
        0 -1 28200 370898226 -505880429 202020309 803860738 -2122063269
        1434747026 -1062754149 -1249959383</internalNodes>
      <leafValues>
        -4.0573230385780334e-01 3.9583951234817505e-01</leafValues></_>
    <_>
      <internalNodes>
        0 -1 16907 -131732824 1397105418 -2139058170 809902604
        -905455526 274063498 1674051687 1528531871</internalNodes>
      <leafValues>
        -4.6819561719894409e-01 3.8812258839607239e-01</leafValues></_>
    <_>
      <internalNodes>
        0 -1 114525 -708059657 -65732477 1132696169 479822369 440491013
        -612155262 1765871185 -1182308117</internalNodes>
      <leafValues>
        -4.4578424096107483e-01 4.0044367313385010e-01</leafValues></_>
    <_>
      <internalNodes>
        0 -1 28187 -297115145 1954655291 306254207 -561051590 1925954579
        -629005144 350668234 600744102</internalNodes>
      <leafValues>
        -4.8177596926689148e-01 3.8255870342254639e-01</leafValues></_>
    <_>
      <internalNodes>
        0 -1 137986 938189493 -293094809 -1377906691 -620822535
        2147468008 1801940951 -134827543 -537672021</internalNodes>
      <leafValues>
        -3.7950348854064941e-01 5.3404343128204346e-01</leafValues></_>
    <_>
      <internalNodes>
        0 -1 122049 -819038281 790691768 1065346865 -136980440
        -1350652993 -1911652436 223720817 -1612721691</internalNodes>
      <leafValues>
        -4.1512277722358704e-01 4.9597248435020447e-01</leafValues></_>
    <_>
      <internalNodes>
        0 -1 46384 -710178110 1065418897 1610621780 -585260542
        -786290004 -733863865 -1817812290 -473218618</internalNodes>
      <leafValues>
        -4.3963578343391418e-01 4.6401908993721008e-01</leafValues></_>
    <_>
      <internalNodes>
        0 -1 22906 2014983060 1868181827 -1782970224 -536213360
        -1991578645 981600696 1395139280 395265648</internalNodes>
      <leafValues>
        -6.5352672338485718e-01 3.3763322234153748e-01</leafValues></_></weakClassifiers></stage17>
</opencv_storage>
