<?xml version="1.0"?>
<opencv_storage>
<stage16>
  <maxWeakCount>9</maxWeakCount>
  <stageThreshold>-9.9051642417907715e-01</stageThreshold>
  <weakClassifiers>
    <_>
      <internalNodes>
        0 -1 137989 1785833120 -2021704788 116964262 206233574 804624364
        -1488978441 2136864243 804003056</internalNodes>
      <leafValues>
        -4.5392492413520813e-01 5.2444076538085938e-01</leafValues></_>
    <_>
      <internalNodes>
        0 -1 124003 269960465 -638617997 536756211 -1107558593
        2106283775 -1610613291 2142150571 -4456515</internalNodes>
      <leafValues>
        -3.7359926104545593e-01 4.3365469574928284e-01</leafValues></_>
    <_>
      <internalNodes>
        0 -1 28032 -1096435654 -96928013 -94429964 1381479664
        -1073879905 527814476 -826876165 -157845505</internalNodes>
      <leafValues>
        -3.3931708335876465e-01 5.1900559663772583e-01</leafValues></_>
    <_>
      <internalNodes>
        0 -1 137971 -113261655 -1293064648 -1980028400 363528091
        -1073764405 -1370490885 1557496031 -241180417</internalNodes>
      <leafValues>
        -2.8196731209754944e-01 6.1657655239105225e-01</leafValues></_>
    <_>
      <internalNodes>
        0 -1 114622 -81812521 -1051647855 -750565047 1804668963
        1896156672 -930496402 1515409998 205462970</internalNodes>
      <leafValues>
        -4.6098482608795166e-01 4.2236989736557007e-01</leafValues></_>
    <_>
      <internalNodes>
        0 -1 82842 -302014505 -8642951 -25231362 -548005031 -841187888
        -1610817697 -684000086 -345342241</internalNodes>
      <leafValues>
        -3.7999546527862549e-01 5.3810274600982666e-01</leafValues></_>
    <_>
      <internalNodes>
        0 -1 11656 231932920 78983441 -1574923554 1174978601 -1291193905
        -2063495032 1120532597 2137262404</internalNodes>
      <leafValues>
        -7.7486532926559448e-01 2.7722448110580444e-01</leafValues></_>
    <_>
      <internalNodes>
        0 -1 140998 -735071297 -184057597 336924944 -241458368
        -1190925658 1747501448 -1038230965 -2062322918</internalNodes>
      <leafValues>
        -4.1601696610450745e-01 4.8438152670860291e-01</leafValues></_>
    <_>
      <internalNodes>
        0 -1 121302 -720375400 -769935724 1471740325 -1486864580
        -1493392504 -2007967403 1247593117 72738511</internalNodes>
      <leafValues>
        -4.4612643122673035e-01 4.5969924330711365e-01</leafValues></_></weakClassifiers></stage16>
</opencv_storage>
