<?xml version="1.0"?>
<opencv_storage>
<stage9>
  <maxWeakCount>7</maxWeakCount>
  <stageThreshold>-4.0467849373817444e-01</stageThreshold>
  <weakClassifiers>
    <_>
      <internalNodes>
        0 -1 140246 1634655689 -319095048 -33669253 2146398203 255709685
        1341710078 2113910759 1601470324</internalNodes>
      <leafValues>
        -3.1510105729103088e-01 5.8591938018798828e-01</leafValues></_>
    <_>
      <internalNodes>
        0 -1 123963 1493294416 407194496 -1534483963 -112863551
        -1643408899 -1448419159 -471623221 -537145092</internalNodes>
      <leafValues>
        -5.0941258668899536e-01 4.3305835127830505e-01</leafValues></_>
    <_>
      <internalNodes>
        0 -1 46887 -184561953 -538465026 -1679154562 2145291726
        -192983349 -808645797 -151488785 -14218745</internalNodes>
      <leafValues>
        -3.4461197257041931e-01 6.0920649766921997e-01</leafValues></_>
    <_>
      <internalNodes>
        0 -1 5939 -1229117873 776516500 -384616443 2076993745
        -1314849830 -1723119462 -362795522 -1494332764</internalNodes>
      <leafValues>
        -4.9457082152366638e-01 4.1804876923561096e-01</leafValues></_>
    <_>
      <internalNodes>
        0 -1 22936 -105407395 1610465262 1577057770 -51462146 2106062589
        937325566 905443187 -295786122</internalNodes>
      <leafValues>
        -4.4306433200836182e-01 4.9108520150184631e-01</leafValues></_>
    <_>
      <internalNodes>
        0 -1 99936 -646190093 -1895198577 75530373 -2137915390
        -1341743087 -1472099726 235578532 -1368749400</internalNodes>
      <leafValues>
        -5.0436341762542725e-01 4.3546074628829956e-01</leafValues></_>
    <_>
      <internalNodes>
        0 -1 7366 67877796 -976678514 1979830731 -1652390370 1946375106
        1092649161 -802810921 -718913129</internalNodes>
      <leafValues>
        -5.3655356168746948e-01 3.9280563592910767e-01</leafValues></_></weakClassifiers></stage9>
</opencv_storage>
