<?xml version="1.0"?>
<opencv_storage>
<stage4>
  <maxWeakCount>6</maxWeakCount>
  <stageThreshold>-5.9173965454101563e-01</stageThreshold>
  <weakClassifiers>
    <_>
      <internalNodes>
        0 -1 37085 -773852402 1431556445 -1824427775 2031157253
        -1869942305 1266753600 -1073622917 -801052448</internalNodes>
      <leafValues>
        -7.2887325286865234e-01 5.8141446113586426e-01</leafValues></_>
    <_>
      <internalNodes>
        0 -1 42238 -353400073 -537984893 1122987775 -573945118
        1182237898 -269038020 1476206318 1330070337</internalNodes>
      <leafValues>
        -4.5126533508300781e-01 5.5726993083953857e-01</leafValues></_>
    <_>
      <internalNodes>
        0 -1 87815 -72622628 592674825 1090785663 -133988325 -1643476754
        -519634680 1612955843 -572787713</internalNodes>
      <leafValues>
        -5.6404173374176025e-01 4.4948458671569824e-01</leafValues></_>
    <_>
      <internalNodes>
        0 -1 11626 -860048154 -1212233062 -1952278906 -1365475830
        -1957442610 -1550004150 -811164433 1822432274</internalNodes>
      <leafValues>
        -6.6450506448745728e-01 4.0142625570297241e-01</leafValues></_>
    <_>
      <internalNodes>
        0 -1 25995 -993155505 -787371519 1678778647 -112188991
        1857064179 -1450053496 -2004835597 -1175804975</internalNodes>
      <leafValues>
        -6.7643857002258301e-01 3.8511541485786438e-01</leafValues></_>
    <_>
      <internalNodes>
        0 -1 139494 2107357944 1976813806 575735622 -1260232427
        1839935941 -1165834129 856073211 1070933627</internalNodes>
      <leafValues>
        -6.3076424598693848e-01 4.1392669081687927e-01</leafValues></_></weakClassifiers></stage4>
</opencv_storage>
