<?xml version="1.0"?>
<opencv_storage>
<stage11>
  <maxWeakCount>7</maxWeakCount>
  <stageThreshold>-4.8602908849716187e-01</stageThreshold>
  <weakClassifiers>
    <_>
      <internalNodes>
        0 -1 72547 -288423970 -1 -65537 -327681 -1048577 -1 -1143275522
        -1</internalNodes>
      <leafValues>
        -4.5110410451889038e-01 5.4353338479995728e-01</leafValues></_>
    <_>
      <internalNodes>
        0 -1 53379 -561555855 -757157823 -2130063130 1384157391
        -904213246 1480591943 -754863434 1734284026</internalNodes>
      <leafValues>
        -4.8731896281242371e-01 3.8719832897186279e-01</leafValues></_>
    <_>
      <internalNodes>
        0 -1 52214 1252929263 1994858223 -1560614145 -268783618
        1711181407 -1656811845 -940100390 -279510569</internalNodes>
      <leafValues>
        -4.2385306954383850e-01 4.5217216014862061e-01</leafValues></_>
    <_>
      <internalNodes>
        0 -1 141046 -19927158 -1429159657 17463644 -618691957
        -1458847650 -930887537 1602988538 -49536152</internalNodes>
      <leafValues>
        -4.4560167193412781e-01 4.4592997431755066e-01</leafValues></_>
    <_>
      <internalNodes>
        0 -1 141189 -272639413 -1007698241 1860153922 -767460173
        -981646262 1464266677 -366230398 -741355794</internalNodes>
      <leafValues>
        -3.6879384517669678e-01 5.3390353918075562e-01</leafValues></_>
    <_>
      <internalNodes>
        0 -1 57904 816976545 -170950382 -788508362 1029756038
        -1197241774 -2125807478 1116318031 -1958856295</internalNodes>
      <leafValues>
        -5.2323073148727417e-01 3.9849194884300232e-01</leafValues></_>
    <_>
      <internalNodes>
        0 -1 22922 649492471 -151062786 -136628873 -811679746
        -1359102035 -2055274625 1033862846 -1384266502</internalNodes>
      <leafValues>
        -4.3936663866043091e-01 5.1766502857208252e-01</leafValues></_></weakClassifiers></stage11>
</opencv_storage>
