<?xml version="1.0"?>
<opencv_storage>
<stage6>
  <maxWeakCount>7</maxWeakCount>
  <stageThreshold>-5.6373763084411621e-01</stageThreshold>
  <weakClassifiers>
    <_>
      <internalNodes>
        0 -1 61645 319249662 1409351811 -1727344420 1978408018 33620156
        151126017 -1123272520 -807356276</internalNodes>
      <leafValues>
        -6.2500000000000000e-01 5.3802591562271118e-01</leafValues></_>
    <_>
      <internalNodes>
        0 -1 37353 -831534385 -134951360 552028653 -605418974 1282018954
        -272137362 -276861141 -3717293</internalNodes>
      <leafValues>
        -3.6859372258186340e-01 5.7396984100341797e-01</leafValues></_>
    <_>
      <internalNodes>
        0 -1 140998 -59924226 -540082201 2130673214 -369367182
        -1073746010 1868340543 -603981842 -2018250362</internalNodes>
      <leafValues>
        -4.1784909367561340e-01 5.5247831344604492e-01</leafValues></_>
    <_>
      <internalNodes>
        0 -1 123882 -203958989 992978713 -1212206285 1060765683
        -1073758278 -1097155618 -8995670 -1147145297</internalNodes>
      <leafValues>
        -3.7655407190322876e-01 6.2097555398941040e-01</leafValues></_>
    <_>
      <internalNodes>
        0 -1 16 -2146097538 -1976274751 1429846 -1764748921 805994747
        -75347824 1887674379 -87275496</internalNodes>
      <leafValues>
        -5.8395826816558838e-01 4.4087219238281250e-01</leafValues></_>
    <_>
      <internalNodes>
        0 -1 6000 -421029922 -174488955 -2012473863 -657259494
        -133529458 313131137 -1281875758 -510807874</internalNodes>
      <leafValues>
        -5.0006681680679321e-01 5.1975566148757935e-01</leafValues></_>
    <_>
      <internalNodes>
        0 -1 5985 -518332210 -1965506014 -855028708 -867340214
        1511054315 -675155032 942330370 284727338</internalNodes>
      <leafValues>
        -7.8132492303848267e-01 3.1813439726829529e-01</leafValues></_></weakClassifiers></stage6>
</opencv_storage>
