<?xml version="1.0"?>
<opencv_storage>
<stage13>
  <maxWeakCount>8</maxWeakCount>
  <stageThreshold>-4.0724471211433411e-01</stageThreshold>
  <weakClassifiers>
    <_>
      <internalNodes>
        0 -1 139492 -1099346656 1258012452 1065352816 -1816232278
        -1543570168 390053614 1324447732 400077454</internalNodes>
      <leafValues>
        -5.0442475080490112e-01 5.2772074937820435e-01</leafValues></_>
    <_>
      <internalNodes>
        0 -1 78095 -950956497 1430106121 537100463 -184430369
        -2136945685 -390037312 -1593190926 -104598797</internalNodes>
      <leafValues>
        -5.0698715448379517e-01 3.7504842877388000e-01</leafValues></_>
    <_>
      <internalNodes>
        0 -1 135736 541362330 167100599 168282309 1355536559 -129253222
        6868992 1499433487 1448643026</internalNodes>
      <leafValues>
        -5.7867962121963501e-01 3.2892698049545288e-01</leafValues></_>
    <_>
      <internalNodes>
        0 -1 2065 -522737929 -72403606 1459513056 -955325239 237494378
        -857583753 -147377130 -168904990</internalNodes>
      <leafValues>
        -3.9864170551300049e-01 4.7784340381622314e-01</leafValues></_>
    <_>
      <internalNodes>
        0 -1 21556 -247211446 -917259541 1076957186 302891204
        -1013087992 124332042 -1018330364 -703671989</internalNodes>
      <leafValues>
        -4.5341297984123230e-01 4.2742559313774109e-01</leafValues></_>
    <_>
      <internalNodes>
        0 -1 11581 -1514117769 -1836121848 285475192 -110997170
        230533280 -740224734 127992046 469039818</internalNodes>
      <leafValues>
        -5.2358597517013550e-01 3.8001540303230286e-01</leafValues></_>
    <_>
      <internalNodes>
        0 -1 48712 -1845362509 -1585319232 -1878961775 -612513389
        -662273770 1846139049 378022 -667023456</internalNodes>
      <leafValues>
        -4.7506597638130188e-01 4.4903716444969177e-01</leafValues></_>
    <_>
      <internalNodes>
        0 -1 121842 -766773423 881021209 -1056759531 21987347 -536809070
        -1668505461 1292394577 -1010964789</internalNodes>
      <leafValues>
        -5.7797837257385254e-01 3.6742618680000305e-01</leafValues></_></weakClassifiers></stage13>
</opencv_storage>
