<?xml version="1.0"?>
<opencv_storage>
<stage12>
  <maxWeakCount>7</maxWeakCount>
  <stageThreshold>-6.5154802799224854e-01</stageThreshold>
  <weakClassifiers>
    <_>
      <internalNodes>
        0 -1 6000 -1396271138 -1607192130 184731949 -926117172
        1368105502 850028818 1747529778 407380274</internalNodes>
      <leafValues>
        -7.5956284999847412e-01 4.8519361019134521e-01</leafValues></_>
    <_>
      <internalNodes>
        0 -1 109200 -673185825 -1325350769 135626909 -2134851573
        306253824 -1430552448 -1207170371 -269239656</internalNodes>
      <leafValues>
        -4.2194610834121704e-01 4.4584444165229797e-01</leafValues></_>
    <_>
      <internalNodes>
        0 -1 136957 -1759056451 -636968761 1610694773 548769922
        -1555046016 939556903 -318714145 838908123</internalNodes>
      <leafValues>
        -4.6058887243270874e-01 4.0502804517745972e-01</leafValues></_>
    <_>
      <internalNodes>
        0 -1 125545 -134217797 -14468327 -1623525388 -137364957
        1203090347 -1170264544 -1139955570 -1500726881</internalNodes>
      <leafValues>
        -3.0822512507438660e-01 6.5689402818679810e-01</leafValues></_>
    <_>
      <internalNodes>
        0 -1 124450 -775417502 315384200 1409581477 1973323597 663405524
        -1467973628 993569721 -74496195</internalNodes>
      <leafValues>
        -4.4020560383796692e-01 4.3842887878417969e-01</leafValues></_>
    <_>
      <internalNodes>
        0 -1 140992 320705258 989114503 -469684223 -517973277 -208948819
        -1174241144 -728781982 64587732</internalNodes>
      <leafValues>
        -6.2129551172256470e-01 3.2854330539703369e-01</leafValues></_>
    <_>
      <internalNodes>
        0 -1 15551 -245372342 -766981077 -2013261822 1891764298
        1132530754 196864 -2118118912 1146404979</internalNodes>
      <leafValues>
        -6.9993615150451660e-01 3.0373060703277588e-01</leafValues></_></weakClassifiers></stage12>
</opencv_storage>
